Language model created by QuickLM on Wed Dec 29 10:43:22 EST 2021
Copyright (c) 1996-2010 Carnegie Mellon University and Alexander I. Rudnicky

The model is in standard ARPA format, designed by Doug Paul while he was at MITRE.

The code that was used to produce this language model is available in Open Source.
Please visit http://www.speech.cs.cmu.edu/tools/ for more information

The (fixed) discount mass is 0.5. The backoffs are computed using the ratio method.
This model based on a corpus of 32 sentences and 14 words

\data\
ngram 1=14
ngram 2=32
ngram 3=59

\1-grams:
-1.6812 1 -0.2632
-1.6812 2 -0.2632
-1.6812 3 -0.2632
-1.6812 4 -0.2632
-1.0792 </s> -0.3010
-1.0792 <s> -0.2632
-1.3802 CLOSE -0.2632
-1.6812 DIRECTORY -0.2632
-1.6812 FILE -0.2632
-1.6812 LINK -0.2632
-1.5051 OPEN -0.2730
-1.6812 PROGRAM -0.2632
-1.0792 ROBIN -0.2632
-1.9823 RUN -0.2919

\2-grams:
-0.3010 1 </s> -0.3010
-0.3010 2 </s> -0.3010
-0.3010 3 </s> -0.3010
-0.3010 4 </s> -0.3010
-0.3010 <s> ROBIN 0.0000
-0.9031 CLOSE DIRECTORY 0.0000
-0.9031 CLOSE FILE 0.0000
-0.9031 CLOSE LINK 0.0000
-0.9031 CLOSE PROGRAM 0.0000
-0.9031 DIRECTORY 1 0.0000
-0.9031 DIRECTORY 2 0.0000
-0.9031 DIRECTORY 3 0.0000
-0.9031 DIRECTORY 4 0.0000
-0.9031 FILE 1 0.0000
-0.9031 FILE 2 0.0000
-0.9031 FILE 3 0.0000
-0.9031 FILE 4 0.0000
-0.9031 LINK 1 0.0000
-0.9031 LINK 2 0.0000
-0.9031 LINK 3 0.0000
-0.9031 LINK 4 0.0000
-0.7782 OPEN DIRECTORY 0.0000
-0.7782 OPEN FILE 0.0000
-0.7782 OPEN LINK 0.0000
-0.9031 PROGRAM 1 0.0000
-0.9031 PROGRAM 2 0.0000
-0.9031 PROGRAM 3 0.0000
-0.9031 PROGRAM 4 0.0000
-0.6021 ROBIN CLOSE 0.0000
-0.7270 ROBIN OPEN 0.0000
-1.2041 ROBIN RUN 0.0000
-0.3010 RUN PROGRAM 0.0000

\3-grams:
-0.6021 <s> ROBIN CLOSE
-0.7270 <s> ROBIN OPEN
-1.2041 <s> ROBIN RUN
-0.9031 CLOSE DIRECTORY 1
-0.9031 CLOSE DIRECTORY 2
-0.9031 CLOSE DIRECTORY 3
-0.9031 CLOSE DIRECTORY 4
-0.9031 CLOSE FILE 1
-0.9031 CLOSE FILE 2
-0.9031 CLOSE FILE 3
-0.9031 CLOSE FILE 4
-0.9031 CLOSE LINK 1
-0.9031 CLOSE LINK 2
-0.9031 CLOSE LINK 3
-0.9031 CLOSE LINK 4
-0.9031 CLOSE PROGRAM 1
-0.9031 CLOSE PROGRAM 2
-0.9031 CLOSE PROGRAM 3
-0.9031 CLOSE PROGRAM 4
-0.3010 DIRECTORY 1 </s>
-0.3010 DIRECTORY 2 </s>
-0.3010 DIRECTORY 3 </s>
-0.3010 DIRECTORY 4 </s>
-0.3010 FILE 1 </s>
-0.3010 FILE 2 </s>
-0.3010 FILE 3 </s>
-0.3010 FILE 4 </s>
-0.3010 LINK 1 </s>
-0.3010 LINK 2 </s>
-0.3010 LINK 3 </s>
-0.3010 LINK 4 </s>
-0.9031 OPEN DIRECTORY 1
-0.9031 OPEN DIRECTORY 2
-0.9031 OPEN DIRECTORY 3
-0.9031 OPEN DIRECTORY 4
-0.9031 OPEN FILE 1
-0.9031 OPEN FILE 2
-0.9031 OPEN FILE 3
-0.9031 OPEN FILE 4
-0.9031 OPEN LINK 1
-0.9031 OPEN LINK 2
-0.9031 OPEN LINK 3
-0.9031 OPEN LINK 4
-0.3010 PROGRAM 1 </s>
-0.3010 PROGRAM 2 </s>
-0.3010 PROGRAM 3 </s>
-0.3010 PROGRAM 4 </s>
-0.9031 ROBIN CLOSE DIRECTORY
-0.9031 ROBIN CLOSE FILE
-0.9031 ROBIN CLOSE LINK
-0.9031 ROBIN CLOSE PROGRAM
-0.7782 ROBIN OPEN DIRECTORY
-0.7782 ROBIN OPEN FILE
-0.7782 ROBIN OPEN LINK
-0.3010 ROBIN RUN PROGRAM
-0.9031 RUN PROGRAM 1
-0.9031 RUN PROGRAM 2
-0.9031 RUN PROGRAM 3
-0.9031 RUN PROGRAM 4

\end\
